{"reduce_2d_cols": {"float32": {"predictor": [{"children_right": [8, 5, 4, -1, -1, 7, -1, -1, -1], "threshold": [9704.50, 960.00, 960.00, -2.00, -2.00, 176.00, -2.00, -2.00, -2.00], "value": [[0.00, 0.00, 0.00, 0.00, 0.00], [0.00, 0.00, 0.00, 0.00, 0.00], [0.00, 0.00, 0.00, 0.00, 0.00], [20.07, 20.98, 22.49, 20.32, 14.02], [10.81, 8.07, 8.39, 8.01, 8.31], [0.00, 0.00, 0.00, 0.00, 0.00], [8.36, 11.60, 11.17, 11.28, 3.94], [10.37, 11.28, 10.28, 11.39, 6.24], [25.00, 28.68, 32.64, 35.61, 10.82]], "feature": [0.00, 0.00, 1.00, -2.00, -2.00, 1.00, -2.00, -2.00, -2.00], "children_left": [1, 2, 3, -1, -1, 6, -1, -1, -1]}], "profiles": [[4, 32, 4, 1, 64, 1], [4, 8, 16, 1, 128, 1], [4, 8, 8, 1, 512, 1], [4, 8, 16, 1, 1024, 1], [4, 8, 16, 32, 16, 1]]}}, "gemm_nn": {"float32": {"predictor": [{"children_right": [14, 13, 12, 11, 6, -1, 10, 9, -1, -1, -1, -1, -1, -1, 16, -1, 18, -1, -1], "threshold": [1048.00, 2664.50, 640.00, 320.00, 100.50, -2.00, 1920.00, 320.00, -2.00, -2.00, -2.00, -2.00, -2.00, -2.00, 160.00, -2.00, 224.00, -2.00, -2.00], "children_left": [1, 2, 3, 4, 5, -1, 7, 8, -1, -1, -1, -1, -1, -1, 15, -1, 17, -1, -1], "feature": [2.00, 0.00, 2.00, 2.00, 2.00, -2.00, 1.00, 1.00, -2.00, -2.00, -2.00, -2.00, -2.00, -2.00, 0.00, -2.00, 1.00, -2.00, -2.00], "value": [[0.00, 0.00, 0.00, 0.00, 0.00, 0.00, 0.00, 0.00, 0.00], [0.00, 0.00, 0.00, 0.00, 0.00, 0.00, 0.00, 0.00, 0.00], [0.00, 0.00, 0.00, 0.00, 0.00, 0.00, 0.00, 0.00, 0.00], [0.00, 0.00, 0.00, 0.00, 0.00, 0.00, 0.00, 0.00, 0.00], [0.00, 0.00, 0.00, 0.00, 0.00, 0.00, 0.00, 0.00, 0.00], [179.16, 220.55, 0.00, 0.00, 0.00, 0.00, 0.00, 198.26, 0.00], [0.00, 0.00, 0.00, 0.00, 0.00, 0.00, 0.00, 0.00, 0.00], [0.00, 0.00, 0.00, 0.00, 0.00, 0.00, 0.00, 0.00, 0.00], [237.89, 249.16, 0.00, 0.00, 0.00, 0.00, 0.00, 250.13, 0.00], [268.27, 263.21, 0.00, 0.00, 0.00, 0.00, 0.00, 276.92, 0.00], [233.44, 277.92, 0.00, 0.00, 0.00, 0.00, 0.00, 238.84, 0.00], [222.97, 256.88, 0.00, 0.00, 0.00, 223.82, 0.00, 227.00, 0.00], [472.78, 410.68, 0.00, 0.00, 0.00, 0.00, 0.00, 452.89, 0.00], [211.37, 213.29, 0.00, 0.00, 0.00, 182.32, 179.08, 215.55, 167.10], [0.00, 0.00, 0.00, 0.00, 0.00, 0.00, 0.00, 0.00, 0.00], [20.50, 33.22, 285.07, 431.18, 160.23, 63.85, 118.35, 16.98, 81.63], [0.00, 0.00, 0.00, 0.00, 0.00, 0.00, 0.00, 0.00, 0.00], [246.67, 225.47, 0.00, 0.00, 0.00, 275.57, 263.26, 254.10, 275.08], [318.95, 355.36, 0.00, 0.00, 505.33, 389.55, 376.46, 261.34, 423.80]]}, {"children_right": [2, -1, 8, 7, 6, -1, -1, -1, 14, 13, 12, -1, -1, -1, 16, -1, -1], "threshold": [116.50, -2.00, 812.50, 492.50, 212.50, -2.00, -2.00, -2.00, 629.50, 2664.50, 100.50, -2.00, -2.00, -2.00, 1216.00, -2.00, -2.00], "children_left": [1, -1, 3, 4, 5, -1, -1, -1, 9, 10, 11, -1, -1, -1, 15, -1, -1], "feature": [0.00, -2.00, 0.00, 0.00, 0.00, -2.00, -2.00, -2.00, 2.00, 0.00, 2.00, -2.00, -2.00, -2.00, 1.00, -2.00, -2.00], "value": [[0.00, 0.00, 0.00, 0.00, 0.00, 0.00, 0.00, 0.00, 0.00], [20.50, 33.22, 285.07, 431.18, 160.23, 63.85, 118.35, 16.98, 81.63], [0.00, 0.00, 0.00, 0.00, 0.00, 0.00, 0.00, 0.00, 0.00], [0.00, 0.00, 0.00, 0.00, 0.00, 0.00, 0.00, 0.00, 0.00], [0.00, 0.00, 0.00, 0.00, 0.00, 0.00, 0.00, 0.00, 0.00], [197.68, 274.58, 0.00, 0.00, 288.07, 348.89, 320.46, 160.52, 254.11], [318.95, 355.36, 0.00, 0.00, 505.33, 389.55, 376.46, 261.34, 423.80], [246.67, 225.47, 0.00, 0.00, 0.00, 275.57, 263.26, 254.10, 275.08], [0.00, 0.00, 0.00, 0.00, 0.00, 0.00, 0.00, 0.00, 0.00], [0.00, 0.00, 0.00, 0.00, 0.00, 0.00, 0.00, 0.00, 0.00], [0.00, 0.00, 0.00, 0.00, 0.00, 0.00, 0.00, 0.00, 0.00], [96.38, 106.84, 0.00, 0.00, 0.00, 0.00, 0.00, 93.74, 0.00], [237.89, 249.16, 0.00, 0.00, 0.00, 0.00, 0.00, 250.13, 0.00], [211.37, 213.29, 0.00, 0.00, 0.00, 182.32, 179.08, 215.55, 167.10], [0.00, 0.00, 0.00, 0.00, 0.00, 0.00, 0.00, 0.00, 0.00], [472.78, 410.68, 0.00, 0.00, 0.00, 0.00, 0.00, 452.89, 0.00], [515.81, 438.78, 0.00, 0.00, 0.00, 0.00, 0.00, 545.68, 0.00]]}, {"children_right": [16, 13, 6, 5, -1, -1, 12, 9, -1, 11, -1, -1, -1, 15, -1, -1, 18, -1, 22, 21, -1, -1, -1], "threshold": [792.00, 309.50, 100.50, 1536.00, -2.00, -2.00, 2880.00, 948.50, -2.00, 2016.00, -2.00, -2.00, -2.00, 1597.00, -2.00, -2.00, 128.00, -2.00, 492.50, 17728.00, -2.00, -2.00, -2.00], "children_left": [1, 2, 3, 4, -1, -1, 7, 8, -1, 10, -1, -1, -1, 14, -1, -1, 17, -1, 19, 20, -1, -1, -1], "feature": [2.00, 2.00, 2.00, 0.00, -2.00, -2.00, 0.00, 0.00, -2.00, 0.00, -2.00, -2.00, -2.00, 0.00, -2.00, -2.00, 1.00, -2.00, 0.00, 2.00, -2.00, -2.00, -2.00], "value": [[0.00, 0.00, 0.00, 0.00, 0.00, 0.00, 0.00, 0.00, 0.00], [0.00, 0.00, 0.00, 0.00, 0.00, 0.00, 0.00, 0.00, 0.00], [0.00, 0.00, 0.00, 0.00, 0.00, 0.00, 0.00, 0.00, 0.00], [0.00, 0.00, 0.00, 0.00, 0.00, 0.00, 0.00, 0.00, 0.00], [96.38, 106.84, 0.00, 0.00, 0.00, 0.00, 0.00, 93.74, 0.00], [179.16, 220.55, 0.00, 0.00, 0.00, 0.00, 0.00, 198.26, 0.00], [0.00, 0.00, 0.00, 0.00, 0.00, 0.00, 0.00, 0.00, 0.00], [0.00, 0.00, 0.00, 0.00, 0.00, 0.00, 0.00, 0.00, 0.00], [233.44, 277.92, 0.00, 0.00, 0.00, 0.00, 0.00, 238.84, 0.00], [0.00, 0.00, 0.00, 0.00, 0.00, 0.00, 0.00, 0.00, 0.00], [268.27, 263.21, 0.00, 0.00, 0.00, 0.00, 0.00, 276.92, 0.00], [237.89, 249.16, 0.00, 0.00, 0.00, 0.00, 0.00, 250.13, 0.00], [294.36, 292.92, 0.00, 0.00, 0.00, 0.00, 0.00, 311.85, 0.00], [0.00, 0.00, 0.00, 0.00, 0.00, 0.00, 0.00, 0.00, 0.00], [222.97, 256.88, 0.00, 0.00, 0.00, 223.82, 0.00, 227.00, 0.00], [211.37, 213.29, 0.00, 0.00, 0.00, 182.32, 179.08, 215.55, 167.10], [0.00, 0.00, 0.00, 0.00, 0.00, 0.00, 0.00, 0.00, 0.00], [20.50, 33.22, 285.07, 431.18, 160.23, 63.85, 118.35, 16.98, 81.63], [0.00, 0.00, 0.00, 0.00, 0.00, 0.00, 0.00, 0.00, 0.00], [0.00, 0.00, 0.00, 0.00, 0.00, 0.00, 0.00, 0.00, 0.00], [197.68, 274.58, 0.00, 0.00, 288.07, 348.89, 320.46, 160.52, 254.11], [318.95, 355.36, 0.00, 0.00, 505.33, 389.55, 376.46, 261.34, 423.80], [246.67, 225.47, 0.00, 0.00, 0.00, 275.57, 263.26, 254.10, 275.08]]}, {"children_right": [18, 13, 12, 7, 6, -1, -1, 9, -1, 11, -1, -1, -1, 17, 16, -1, -1, -1, -1], "threshold": [33728.00, 792.00, 320.00, 116.50, 629.50, -2.00, -2.00, 948.50, -2.00, 2016.00, -2.00, -2.00, -2.00, 1216.00, 449.00, -2.00, -2.00, -2.00, -2.00], "children_left": [1, 2, 3, 4, 5, -1, -1, 8, -1, 10, -1, -1, -1, 14, 15, -1, -1, -1, -1], "feature": [2.00, 2.00, 2.00, 2.00, 1.00, -2.00, -2.00, 0.00, -2.00, 0.00, -2.00, -2.00, -2.00, 1.00, 0.00, -2.00, -2.00, -2.00, -2.00], "value": [[0.00, 0.00, 0.00, 0.00, 0.00, 0.00, 0.00, 0.00, 0.00], [0.00, 0.00, 0.00, 0.00, 0.00, 0.00, 0.00, 0.00, 0.00], [0.00, 0.00, 0.00, 0.00, 0.00, 0.00, 0.00, 0.00, 0.00], [0.00, 0.00, 0.00, 0.00, 0.00, 0.00, 0.00, 0.00, 0.00], [0.00, 0.00, 0.00, 0.00, 0.00, 0.00, 0.00, 0.00, 0.00], [169.99, 184.98, 0.00, 0.00, 0.00, 0.00, 0.00, 170.14, 0.00], [96.38, 106.84, 0.00, 0.00, 0.00, 0.00, 0.00, 93.74, 0.00], [0.00, 0.00, 0.00, 0.00, 0.00, 0.00, 0.00, 0.00, 0.00], [233.44, 277.92, 0.00, 0.00, 0.00, 0.00, 0.00, 238.84, 0.00], [0.00, 0.00, 0.00, 0.00, 0.00, 0.00, 0.00, 0.00, 0.00], [268.27, 263.21, 0.00, 0.00, 0.00, 0.00, 0.00, 276.92, 0.00], [237.89, 249.16, 0.00, 0.00, 0.00, 0.00, 0.00, 250.13, 0.00], [222.97, 256.88, 0.00, 0.00, 0.00, 223.82, 0.00, 227.00, 0.00], [0.00, 0.00, 0.00, 0.00, 0.00, 0.00, 0.00, 0.00, 0.00], [0.00, 0.00, 0.00, 0.00, 0.00, 0.00, 0.00, 0.00, 0.00], [197.68, 274.58, 0.00, 0.00, 288.07, 348.89, 320.46, 160.52, 254.11], [246.67, 225.47, 0.00, 0.00, 0.00, 275.57, 263.26, 254.10, 275.08], [527.81, 441.70, 0.00, 0.00, 0.00, 0.00, 0.00, 555.75, 0.00], [20.50, 33.22, 285.07, 431.18, 160.23, 63.85, 118.35, 16.98, 81.63]]}, {"children_right": [16, 13, 6, 5, -1, -1, 12, 11, 10, -1, -1, -1, -1, 15, -1, -1, 18, -1, -1], "threshold": [16192.00, 309.50, 116.50, 1269.50, -2.00, -2.00, 2880.00, 1920.00, 2016.00, -2.00, -2.00, -2.00, -2.00, 1597.00, -2.00, -2.00, 160.00, -2.00, -2.00], "children_left": [1, 2, 3, 4, -1, -1, 7, 8, 9, -1, -1, -1, -1, 14, -1, -1, 17, -1, -1], "feature": [2.00, 2.00, 2.00, 1.00, -2.00, -2.00, 0.00, 1.00, 0.00, -2.00, -2.00, -2.00, -2.00, 0.00, -2.00, -2.00, 0.00, -2.00, -2.00], "value": [[0.00, 0.00, 0.00, 0.00, 0.00, 0.00, 0.00, 0.00, 0.00], [0.00, 0.00, 0.00, 0.00, 0.00, 0.00, 0.00, 0.00, 0.00], [0.00, 0.00, 0.00, 0.00, 0.00, 0.00, 0.00, 0.00, 0.00], [0.00, 0.00, 0.00, 0.00, 0.00, 0.00, 0.00, 0.00, 0.00], [169.99, 184.98, 0.00, 0.00, 0.00, 0.00, 0.00, 170.14, 0.00], [179.16, 220.55, 0.00, 0.00, 0.00, 0.00, 0.00, 198.26, 0.00], [0.00, 0.00, 0.00, 0.00, 0.00, 0.00, 0.00, 0.00, 0.00], [0.00, 0.00, 0.00, 0.00, 0.00, 0.00, 0.00, 0.00, 0.00], [0.00, 0.00, 0.00, 0.00, 0.00, 0.00, 0.00, 0.00, 0.00], [268.27, 263.21, 0.00, 0.00, 0.00, 0.00, 0.00, 276.92, 0.00], [237.89, 249.16, 0.00, 0.00, 0.00, 0.00, 0.00, 250.13, 0.00], [233.44, 277.92, 0.00, 0.00, 0.00, 0.00, 0.00, 238.84, 0.00], [294.36, 292.92, 0.00, 0.00, 0.00, 0.00, 0.00, 311.85, 0.00], [0.00, 0.00, 0.00, 0.00, 0.00, 0.00, 0.00, 0.00, 0.00], [222.97, 256.88, 0.00, 0.00, 0.00, 223.82, 0.00, 227.00, 0.00], [211.37, 213.29, 0.00, 0.00, 0.00, 182.32, 179.08, 215.55, 167.10], [0.00, 0.00, 0.00, 0.00, 0.00, 0.00, 0.00, 0.00, 0.00], [20.50, 33.22, 285.07, 431.18, 160.23, 63.85, 118.35, 16.98, 81.63], [318.95, 355.36, 0.00, 0.00, 505.33, 389.55, 376.46, 261.34, 423.80]]}, {"children_right": [20, 13, 8, 5, -1, 7, -1, -1, 10, -1, 12, -1, -1, 15, -1, 17, -1, 19, -1, -1, 22, -1, -1], "threshold": [2816.00, 629.50, 116.50, 1536.00, -2.00, 1269.50, -2.00, -2.00, 160.00, -2.00, 1856.00, -2.00, -2.00, 544.00, -2.00, 1216.00, -2.00, 1856.00, -2.00, -2.00, 160.00, -2.00, -2.00], "children_left": [1, 2, 3, 4, -1, 6, -1, -1, 9, -1, 11, -1, -1, 14, -1, 16, -1, 18, -1, -1, 21, -1, -1], "feature": [2.00, 2.00, 2.00, 0.00, -2.00, 1.00, -2.00, -2.00, 1.00, -2.00, 1.00, -2.00, -2.00, 1.00, -2.00, 0.00, -2.00, 0.00, -2.00, -2.00, 1.00, -2.00, -2.00], "value": [[0.00, 0.00, 0.00, 0.00, 0.00, 0.00, 0.00, 0.00, 0.00], [0.00, 0.00, 0.00, 0.00, 0.00, 0.00, 0.00, 0.00, 0.00], [0.00, 0.00, 0.00, 0.00, 0.00, 0.00, 0.00, 0.00, 0.00], [0.00, 0.00, 0.00, 0.00, 0.00, 0.00, 0.00, 0.00, 0.00], [96.38, 106.84, 0.00, 0.00, 0.00, 0.00, 0.00, 93.74, 0.00], [0.00, 0.00, 0.00, 0.00, 0.00, 0.00, 0.00, 0.00, 0.00], [169.99, 184.98, 0.00, 0.00, 0.00, 0.00, 0.00, 170.14, 0.00], [179.16, 220.55, 0.00, 0.00, 0.00, 0.00, 0.00, 198.26, 0.00], [0.00, 0.00, 0.00, 0.00, 0.00, 0.00, 0.00, 0.00, 0.00], [211.37, 213.29, 0.00, 0.00, 0.00, 182.32, 179.08, 215.55, 167.10], [0.00, 0.00, 0.00, 0.00, 0.00, 0.00, 0.00, 0.00, 0.00], [294.36, 292.92, 0.00, 0.00, 0.00, 0.00, 0.00, 311.85, 0.00], [233.44, 277.92, 0.00, 0.00, 0.00, 0.00, 0.00, 238.84, 0.00], [0.00, 0.00, 0.00, 0.00, 0.00, 0.00, 0.00, 0.00, 0.00], [246.67, 225.47, 0.00, 0.00, 0.00, 275.57, 263.26, 254.10, 275.08], [0.00, 0.00, 0.00, 0.00, 0.00, 0.00, 0.00, 0.00, 0.00], [472.78, 410.68, 0.00, 0.00, 0.00, 0.00, 0.00, 452.89, 0.00], [0.00, 0.00, 0.00, 0.00, 0.00, 0.00, 0.00, 0.00, 0.00], [515.81, 438.78, 0.00, 0.00, 0.00, 0.00, 0.00, 545.68, 0.00], [527.81, 441.70, 0.00, 0.00, 0.00, 0.00, 0.00, 555.75, 0.00], [0.00, 0.00, 0.00, 0.00, 0.00, 0.00, 0.00, 0.00, 0.00], [20.50, 33.22, 285.07, 431.18, 160.23, 63.85, 118.35, 16.98, 81.63], [197.68, 274.58, 0.00, 0.00, 288.07, 348.89, 320.46, 160.52, 254.11]]}], "profiles": [[2, 32, 32, 16, 1, 4, 2, 4, 0, 0, 16, 32], [1, 16, 16, 8, 1, 4, 4, 4, 0, 0, 16, 8], [2, 16, 32, 4, 32, 2, 1, 4, 0, 0, 16, 4], [1, 16, 32, 8, 128, 4, 8, 4, 0, 0, 32, 4], [2, 32, 64, 16, 8, 4, 8, 4, 0, 0, 32, 16], [2, 16, 32, 16, 2, 4, 8, 4, 0, 0, 16, 16], [2, 32, 32, 8, 4, 2, 8, 8, 0, 0, 16, 16], [2, 16, 32, 16, 1, 8, 1, 4, 0, 0, 16, 16], [2, 32, 64, 16, 4, 4, 8, 4, 0, 0, 32, 16]]}}, "elementwise_2d": {"float32": {"predictor": [{"children_right": [8, 7, 6, 5, -1, -1, -1, -1, -1], "threshold": [2560.00, 2560.00, 640.00, 640.00, -2.00, -2.00, -2.00, -2.00, -2.00], "value": [[0.00, 0.00, 0.00, 0.00, 0.00, 0.00], [0.00, 0.00, 0.00, 0.00, 0.00, 0.00], [0.00, 0.00, 0.00, 0.00, 0.00, 0.00], [0.00, 0.00, 0.00, 0.00, 0.00, 0.00], [3.97, 2.68, 4.76, 2.38, 1.16, 4.23], [3.14, 2.81, 3.32, 3.00, 1.31, 3.35], [3.37, 3.10, 3.36, 3.01, 2.24, 3.30], [9.64, 7.90, 9.94, 9.40, 1.91, 10.38], [10.11, 10.20, 9.89, 9.62, 7.97, 9.76]], "feature": [1.00, 0.00, 1.00, 0.00, -2.00, -2.00, -2.00, -2.00, -2.00], "children_left": [1, 2, 3, 4, -1, -1, -1, -1, -1]}, {"children_right": [6, 5, 4, -1, -1, -1, 8, -1, -1], "threshold": [1280.00, 2176.00, 640.00, -2.00, -2.00, -2.00, 2816.00, -2.00, -2.00], "value": [[0.00, 0.00, 0.00, 0.00, 0.00, 0.00], [0.00, 0.00, 0.00, 0.00, 0.00, 0.00], [0.00, 0.00, 0.00, 0.00, 0.00, 0.00], [3.97, 2.68, 4.76, 2.38, 1.16, 4.23], [3.37, 3.10, 3.36, 3.01, 2.24, 3.30], [9.64, 7.90, 9.94, 9.40, 1.91, 10.38], [0.00, 0.00, 0.00, 0.00, 0.00, 0.00], [16.24, 16.79, 14.68, 16.14, 7.58, 15.83], [10.11, 10.20, 9.89, 9.62, 7.97, 9.76]], "feature": [1.00, 0.00, 1.00, -2.00, -2.00, -2.00, 1.00, -2.00, -2.00], "children_left": [1, 2, 3, -1, -1, -1, 7, -1, -1]}, {"children_right": [6, 5, 4, -1, -1, -1, 8, -1, -1], "threshold": [1280.00, 640.00, 640.00, -2.00, -2.00, -2.00, 2816.00, -2.00, -2.00], "value": [[0.00, 0.00, 0.00, 0.00, 0.00, 0.00], [0.00, 0.00, 0.00, 0.00, 0.00, 0.00], [0.00, 0.00, 0.00, 0.00, 0.00, 0.00], [3.97, 2.68, 4.76, 2.38, 1.16, 4.23], [3.14, 2.81, 3.32, 3.00, 1.31, 3.35], [3.37, 3.10, 3.36, 3.01, 2.24, 3.30], [0.00, 0.00, 0.00, 0.00, 0.00, 0.00], [16.24, 16.79, 14.68, 16.14, 7.58, 15.83], [10.11, 10.20, 9.89, 9.62, 7.97, 9.76]], "feature": [1.00, 1.00, 0.00, -2.00, -2.00, -2.00, 1.00, -2.00, -2.00], "children_left": [1, 2, 3, -1, -1, -1, 7, -1, -1]}, {"children_right": [4, 3, -1, -1, -1], "threshold": [960.00, 960.00, -2.00, -2.00, -2.00], "value": [[0.00, 0.00, 0.00, 0.00, 0.00, 0.00], [0.00, 0.00, 0.00, 0.00, 0.00, 0.00], [8.52, 8.01, 8.11, 7.97, 3.99, 8.28], [3.37, 3.10, 3.36, 3.01, 2.24, 3.30], [3.14, 2.81, 3.32, 3.00, 1.31, 3.35]], "feature": [0.00, 1.00, -2.00, -2.00, -2.00], "children_left": [1, 2, -1, -1, -1]}, {"children_right": [6, 3, -1, 5, -1, -1, -1], "threshold": [1216.00, 576.00, -2.00, 2496.00, -2.00, -2.00, -2.00], "value": [[0.00, 0.00, 0.00, 0.00, 0.00, 0.00], [0.00, 0.00, 0.00, 0.00, 0.00, 0.00], [3.97, 2.68, 4.76, 2.38, 1.16, 4.23], [0.00, 0.00, 0.00, 0.00, 0.00, 0.00], [8.52, 8.01, 8.11, 7.97, 3.99, 8.28], [10.11, 10.20, 9.89, 9.62, 7.97, 9.76], [16.24, 16.79, 14.68, 16.14, 7.58, 15.83]], "feature": [0.00, 1.00, -2.00, 1.00, -2.00, -2.00, -2.00], "children_left": [1, 2, -1, 4, -1, -1, -1]}, {"children_right": [10, 9, 6, 5, -1, -1, 8, -1, -1, -1, -1], "threshold": [1280.00, 2560.00, 576.00, 640.00, -2.00, -2.00, 960.00, -2.00, -2.00, -2.00, -2.00], "value": [[0.00, 0.00, 0.00, 0.00, 0.00, 0.00], [0.00, 0.00, 0.00, 0.00, 0.00, 0.00], [0.00, 0.00, 0.00, 0.00, 0.00, 0.00], [0.00, 0.00, 0.00, 0.00, 0.00, 0.00], [3.97, 2.68, 4.76, 2.38, 1.16, 4.23], [3.14, 2.81, 3.32, 3.00, 1.31, 3.35], [0.00, 0.00, 0.00, 0.00, 0.00, 0.00], [8.52, 8.01, 8.11, 7.97, 3.99, 8.28], [3.37, 3.10, 3.36, 3.01, 2.24, 3.30], [9.64, 7.90, 9.94, 9.40, 1.91, 10.38], [16.24, 16.79, 14.68, 16.14, 7.58, 15.83]], "feature": [1.00, 0.00, 1.00, 0.00, -2.00, -2.00, 1.00, -2.00, -2.00, -2.00, -2.00], "children_left": [1, 2, 3, 4, -1, -1, 7, -1, -1, -1, -1]}, {"children_right": [8, 7, 6, 5, -1, -1, -1, -1, -1], "threshold": [1280.00, 2560.00, 640.00, 640.00, -2.00, -2.00, -2.00, -2.00, -2.00], "value": [[0.00, 0.00, 0.00, 0.00, 0.00, 0.00], [0.00, 0.00, 0.00, 0.00, 0.00, 0.00], [0.00, 0.00, 0.00, 0.00, 0.00, 0.00], [0.00, 0.00, 0.00, 0.00, 0.00, 0.00], [3.97, 2.68, 4.76, 2.38, 1.16, 4.23], [3.14, 2.81, 3.32, 3.00, 1.31, 3.35], [3.37, 3.10, 3.36, 3.01, 2.24, 3.30], [9.64, 7.90, 9.94, 9.40, 1.91, 10.38], [16.24, 16.79, 14.68, 16.14, 7.58, 15.83]], "feature": [1.00, 0.00, 1.00, 0.00, -2.00, -2.00, -2.00, -2.00, -2.00], "children_left": [1, 2, 3, 4, -1, -1, -1, -1, -1]}, {"children_right": [2, -1, 6, 5, -1, -1, -1], "threshold": [576.00, -2.00, 1216.00, 2496.00, -2.00, -2.00, -2.00], "value": [[0.00, 0.00, 0.00, 0.00, 0.00, 0.00], [3.97, 2.68, 4.76, 2.38, 1.16, 4.23], [0.00, 0.00, 0.00, 0.00, 0.00, 0.00], [0.00, 0.00, 0.00, 0.00, 0.00, 0.00], [8.52, 8.01, 8.11, 7.97, 3.99, 8.28], [9.64, 7.90, 9.94, 9.40, 1.91, 10.38], [16.24, 16.79, 14.68, 16.14, 7.58, 15.83]], "feature": [0.00, -2.00, 1.00, 0.00, -2.00, -2.00, -2.00], "children_left": [1, -1, 3, 4, -1, -1, -1]}, {"children_right": [4, 3, -1, -1, 6, -1, -1], "threshold": [1280.00, 960.00, -2.00, -2.00, 2816.00, -2.00, -2.00], "value": [[0.00, 0.00, 0.00, 0.00, 0.00, 0.00], [0.00, 0.00, 0.00, 0.00, 0.00, 0.00], [8.52, 8.01, 8.11, 7.97, 3.99, 8.28], [3.14, 2.81, 3.32, 3.00, 1.31, 3.35], [0.00, 0.00, 0.00, 0.00, 0.00, 0.00], [16.24, 16.79, 14.68, 16.14, 7.58, 15.83], [9.64, 7.90, 9.94, 9.40, 1.91, 10.38]], "feature": [0.00, 0.00, -2.00, -2.00, 0.00, -2.00, -2.00], "children_left": [1, 2, -1, -1, 5, -1, -1]}], "profiles": [[1, 64, 4, 16, 128, 1], [1, 128, 2, 16, 512, 1], [1, 128, 4, 2, 16, 1], [1, 128, 1, 128, 128, 1], [1, 64, 4, 2, 4096, 1], [1, 128, 2, 32, 32, 1]]}}, "reduce_2d_rows": {"float32": {"predictor": [{"children_right": [6, 3, -1, 5, -1, -1, 8, -1, -1], "threshold": [2560.00, 576.00, -2.00, 960.00, -2.00, -2.00, 10240.00, -2.00, -2.00], "children_left": [1, 2, -1, 4, -1, -1, 7, -1, -1], "feature": [0.00, 0.00, -2.00, 0.00, -2.00, -2.00, 0.00, -2.00, -2.00], "value": [[0.00, 0.00, 0.00, 0.00, 0.00, 0.00, 0.00], [0.00, 0.00, 0.00, 0.00, 0.00, 0.00, 0.00], [17.46, 16.98, 30.57, 4.76, 8.70, 42.37, 4.81], [0.00, 0.00, 0.00, 0.00, 0.00, 0.00, 0.00], [23.42, 21.87, 21.38, 11.76, 16.98, 19.58, 11.94], [9.44, 9.71, 8.98, 8.01, 9.28, 7.83, 8.16], [0.00, 0.00, 0.00, 0.00, 0.00, 0.00, 0.00], [21.51, 23.84, 18.08, 26.02, 23.68, 13.84, 20.36], [30.24, 36.54, 23.70, 38.12, 42.57, 17.28, 37.79]]}], "profiles": [[4, 2, 32, 16, 32, 1], [4, 4, 32, 8, 128, 1], [4, 4, 16, 16, 32, 1], [4, 2, 64, 4, 64, 1], [4, 2, 64, 8, 256, 2], [4, 4, 32, 32, 16, 1], [4, 2, 32, 4, 128, 1]]}}, "version": "1.0", "gemm_tn": {"float32": {"predictor": [{"children_right": [12, 5, 4, -1, -1, 11, 8, -1, 10, -1, -1, -1, 18, 17, 16, -1, -1, -1, -1], "threshold": [1048.00, 532.50, 2016.00, -2.00, -2.00, 532.50, 1312.00, -2.00, 2016.00, -2.00, -2.00, -2.00, 9152.00, 449.00, 2016.00, -2.00, -2.00, -2.00, -2.00], "value": [[0.00, 0.00, 0.00, 0.00, 0.00, 0.00], [0.00, 0.00, 0.00, 0.00, 0.00, 0.00], [0.00, 0.00, 0.00, 0.00, 0.00, 0.00], [177.51, 0.00, 0.00, 0.00, 164.06, 0.00], [166.69, 0.00, 0.00, 0.00, 142.80, 0.00], [0.00, 0.00, 0.00, 0.00, 0.00, 0.00], [0.00, 0.00, 0.00, 0.00, 0.00, 0.00], [92.23, 0.00, 0.00, 0.00, 0.00, 0.00], [0.00, 0.00, 0.00, 0.00, 0.00, 0.00], [180.73, 0.00, 0.00, 0.00, 0.00, 0.00], [163.56, 0.00, 0.00, 0.00, 0.00, 0.00], [265.73, 0.00, 0.00, 0.00, 0.00, 0.00], [0.00, 0.00, 0.00, 0.00, 0.00, 0.00], [0.00, 0.00, 0.00, 0.00, 0.00, 0.00], [0.00, 0.00, 0.00, 0.00, 0.00, 0.00], [150.32, 0.00, 0.00, 179.22, 153.94, 177.71], [82.38, 144.67, 0.00, 156.71, 99.97, 178.29], [149.76, 0.00, 0.00, 0.00, 154.31, 185.81], [4.36, 110.66, 87.82, 42.71, 5.69, 24.71]], "feature": [2.00, 0.00, 1.00, -2.00, -2.00, 2.00, 0.00, -2.00, 0.00, -2.00, -2.00, -2.00, 2.00, 0.00, 2.00, -2.00, -2.00, -2.00, -2.00], "children_left": [1, 2, 3, -1, -1, 6, 7, -1, 9, -1, -1, -1, 13, 14, 15, -1, -1, -1, -1]}, {"children_right": [20, 9, 8, 7, 6, -1, -1, -1, -1, 17, 12, -1, 16, 15, -1, -1, -1, 19, -1, -1, 22, -1, -1], "threshold": [17088.00, 532.50, 1056.00, 2880.00, 2016.00, -2.00, -2.00, -2.00, -2.00, 532.50, 1216.00, -2.00, 960.00, 2592.00, -2.00, -2.00, -2.00, 1536.00, -2.00, -2.00, 48000.00, -2.00, -2.00], "value": [[0.00, 0.00, 0.00, 0.00, 0.00, 0.00], [0.00, 0.00, 0.00, 0.00, 0.00, 0.00], [0.00, 0.00, 0.00, 0.00, 0.00, 0.00], [0.00, 0.00, 0.00, 0.00, 0.00, 0.00], [0.00, 0.00, 0.00, 0.00, 0.00, 0.00], [177.51, 0.00, 0.00, 0.00, 164.06, 0.00], [166.69, 0.00, 0.00, 0.00, 142.80, 0.00], [178.80, 0.00, 0.00, 0.00, 0.00, 0.00], [150.32, 0.00, 0.00, 179.22, 153.94, 177.71], [0.00, 0.00, 0.00, 0.00, 0.00, 0.00], [0.00, 0.00, 0.00, 0.00, 0.00, 0.00], [92.23, 0.00, 0.00, 0.00, 0.00, 0.00], [0.00, 0.00, 0.00, 0.00, 0.00, 0.00], [0.00, 0.00, 0.00, 0.00, 0.00, 0.00], [180.73, 0.00, 0.00, 0.00, 0.00, 0.00], [193.92, 0.00, 0.00, 0.00, 0.00, 0.00], [142.86, 0.00, 0.00, 0.00, 0.00, 0.00], [0.00, 0.00, 0.00, 0.00, 0.00, 0.00], [265.73, 0.00, 0.00, 0.00, 0.00, 0.00], [285.12, 0.00, 0.00, 0.00, 0.00, 0.00], [0.00, 0.00, 0.00, 0.00, 0.00, 0.00], [156.19, 0.00, 0.00, 252.38, 164.78, 205.91], [16.80, 184.81, 237.18, 139.40, 22.56, 99.14]], "feature": [2.00, 0.00, 2.00, 1.00, 1.00, -2.00, -2.00, -2.00, -2.00, 2.00, 0.00, -2.00, 1.00, 0.00, -2.00, -2.00, -2.00, 0.00, -2.00, -2.00, 2.00, -2.00, -2.00], "children_left": [1, 2, 3, 4, 5, -1, -1, -1, -1, 10, 11, -1, 13, 14, -1, -1, -1, 18, -1, -1, 21, -1, -1]}, {"children_right": [16, 13, 4, -1, 8, 7, -1, -1, 12, 11, -1, -1, -1, 15, -1, -1, 18, -1, 20, -1, -1], "threshold": [2240.00, 992.00, 100.50, -2.00, 948.50, 2880.00, -2.00, -2.00, 2880.00, 320.00, -2.00, -2.00, -2.00, 1172.50, -2.00, -2.00, 100.50, -2.00, 17152.00, -2.00, -2.00], "value": [[0.00, 0.00, 0.00, 0.00, 0.00, 0.00], [0.00, 0.00, 0.00, 0.00, 0.00, 0.00], [0.00, 0.00, 0.00, 0.00, 0.00, 0.00], [92.23, 0.00, 0.00, 0.00, 0.00, 0.00], [0.00, 0.00, 0.00, 0.00, 0.00, 0.00], [0.00, 0.00, 0.00, 0.00, 0.00, 0.00], [166.69, 0.00, 0.00, 0.00, 142.80, 0.00], [178.80, 0.00, 0.00, 0.00, 0.00, 0.00], [0.00, 0.00, 0.00, 0.00, 0.00, 0.00], [0.00, 0.00, 0.00, 0.00, 0.00, 0.00], [163.56, 0.00, 0.00, 0.00, 0.00, 0.00], [180.73, 0.00, 0.00, 0.00, 0.00, 0.00], [193.92, 0.00, 0.00, 0.00, 0.00, 0.00], [0.00, 0.00, 0.00, 0.00, 0.00, 0.00], [150.32, 0.00, 0.00, 179.22, 153.94, 177.71], [285.12, 0.00, 0.00, 0.00, 0.00, 0.00], [0.00, 0.00, 0.00, 0.00, 0.00, 0.00], [4.36, 110.66, 87.82, 42.71, 5.69, 24.71], [0.00, 0.00, 0.00, 0.00, 0.00, 0.00], [82.38, 144.67, 0.00, 156.71, 99.97, 178.29], [156.19, 0.00, 0.00, 252.38, 164.78, 205.91]], "feature": [2.00, 2.00, 2.00, -2.00, 0.00, 1.00, -2.00, -2.00, 0.00, 1.00, -2.00, -2.00, -2.00, 0.00, -2.00, -2.00, 0.00, -2.00, 2.00, -2.00, -2.00], "children_left": [1, 2, 3, -1, 5, 6, -1, -1, 9, 10, -1, -1, -1, 14, -1, -1, 17, -1, 19, -1, -1]}, {"children_right": [14, 3, -1, 11, 6, -1, 10, 9, -1, -1, -1, 13, -1, -1, 18, 17, -1, -1, 20, -1, -1], "threshold": [2240.00, 224.00, -2.00, 532.50, 1216.00, -2.00, 960.00, 320.00, -2.00, -2.00, -2.00, 1536.00, -2.00, -2.00, 116.50, 48.00, -2.00, -2.00, 192.00, -2.00, -2.00], "value": [[0.00, 0.00, 0.00, 0.00, 0.00, 0.00], [0.00, 0.00, 0.00, 0.00, 0.00, 0.00], [149.76, 0.00, 0.00, 0.00, 154.31, 185.81], [0.00, 0.00, 0.00, 0.00, 0.00, 0.00], [0.00, 0.00, 0.00, 0.00, 0.00, 0.00], [92.23, 0.00, 0.00, 0.00, 0.00, 0.00], [0.00, 0.00, 0.00, 0.00, 0.00, 0.00], [0.00, 0.00, 0.00, 0.00, 0.00, 0.00], [163.56, 0.00, 0.00, 0.00, 0.00, 0.00], [180.73, 0.00, 0.00, 0.00, 0.00, 0.00], [142.86, 0.00, 0.00, 0.00, 0.00, 0.00], [0.00, 0.00, 0.00, 0.00, 0.00, 0.00], [265.73, 0.00, 0.00, 0.00, 0.00, 0.00], [285.12, 0.00, 0.00, 0.00, 0.00, 0.00], [0.00, 0.00, 0.00, 0.00, 0.00, 0.00], [0.00, 0.00, 0.00, 0.00, 0.00, 0.00], [4.36, 110.66, 87.82, 42.71, 5.69, 24.71], [16.80, 184.81, 237.18, 139.40, 22.56, 99.14], [0.00, 0.00, 0.00, 0.00, 0.00, 0.00], [82.38, 144.67, 0.00, 156.71, 99.97, 178.29], [156.19, 0.00, 0.00, 252.38, 164.78, 205.91]], "feature": [2.00, 1.00, -2.00, 2.00, 0.00, -2.00, 1.00, 1.00, -2.00, -2.00, -2.00, 0.00, -2.00, -2.00, 0.00, 0.00, -2.00, -2.00, 1.00, -2.00, -2.00], "children_left": [1, 2, -1, 4, 5, -1, 7, 8, -1, -1, -1, 12, -1, -1, 15, 16, -1, -1, 19, -1, -1]}, {"children_right": [16, 3, -1, 9, 8, 7, -1, -1, -1, 15, 14, 13, -1, -1, -1, -1, 20, 19, -1, -1, -1], "threshold": [9088.00, 224.00, -2.00, 1312.00, 2880.00, 144.00, -2.00, -2.00, -2.00, 1280.00, 2880.00, 2016.00, -2.00, -2.00, -2.00, -2.00, 160.00, 48.00, -2.00, -2.00, -2.00], "value": [[0.00, 0.00, 0.00, 0.00, 0.00, 0.00], [0.00, 0.00, 0.00, 0.00, 0.00, 0.00], [149.76, 0.00, 0.00, 0.00, 154.31, 185.81], [0.00, 0.00, 0.00, 0.00, 0.00, 0.00], [0.00, 0.00, 0.00, 0.00, 0.00, 0.00], [0.00, 0.00, 0.00, 0.00, 0.00, 0.00], [92.23, 0.00, 0.00, 0.00, 0.00, 0.00], [166.69, 0.00, 0.00, 0.00, 142.80, 0.00], [178.80, 0.00, 0.00, 0.00, 0.00, 0.00], [0.00, 0.00, 0.00, 0.00, 0.00, 0.00], [0.00, 0.00, 0.00, 0.00, 0.00, 0.00], [0.00, 0.00, 0.00, 0.00, 0.00, 0.00], [180.73, 0.00, 0.00, 0.00, 0.00, 0.00], [163.56, 0.00, 0.00, 0.00, 0.00, 0.00], [193.92, 0.00, 0.00, 0.00, 0.00, 0.00], [285.12, 0.00, 0.00, 0.00, 0.00, 0.00], [0.00, 0.00, 0.00, 0.00, 0.00, 0.00], [0.00, 0.00, 0.00, 0.00, 0.00, 0.00], [4.36, 110.66, 87.82, 42.71, 5.69, 24.71], [16.80, 184.81, 237.18, 139.40, 22.56, 99.14], [156.19, 0.00, 0.00, 252.38, 164.78, 205.91]], "feature": [2.00, 1.00, -2.00, 0.00, 1.00, 2.00, -2.00, -2.00, -2.00, 1.00, 0.00, 0.00, -2.00, -2.00, -2.00, -2.00, 0.00, 0.00, -2.00, -2.00, -2.00], "children_left": [1, 2, -1, 4, 5, 6, -1, -1, -1, 10, 11, 12, -1, -1, -1, -1, 17, 18, -1, -1, -1]}, {"children_right": [2, -1, 10, 7, 6, -1, -1, 9, -1, -1, 20, 13, -1, 15, -1, 19, 18, -1, -1, -1, -1], "threshold": [160.00, -2.00, 576.00, 1056.00, 320.00, -2.00, -2.00, 212.50, -2.00, -2.00, 1856.00, 1216.00, -2.00, 1632.00, -2.00, 2880.00, 2016.00, -2.00, -2.00, -2.00, -2.00], "value": [[0.00, 0.00, 0.00, 0.00, 0.00, 0.00], [16.80, 184.81, 237.18, 139.40, 22.56, 99.14], [0.00, 0.00, 0.00, 0.00, 0.00, 0.00], [0.00, 0.00, 0.00, 0.00, 0.00, 0.00], [0.00, 0.00, 0.00, 0.00, 0.00, 0.00], [166.69, 0.00, 0.00, 0.00, 142.80, 0.00], [177.51, 0.00, 0.00, 0.00, 164.06, 0.00], [0.00, 0.00, 0.00, 0.00, 0.00, 0.00], [150.32, 0.00, 0.00, 179.22, 153.94, 177.71], [156.19, 0.00, 0.00, 252.38, 164.78, 205.91], [0.00, 0.00, 0.00, 0.00, 0.00, 0.00], [0.00, 0.00, 0.00, 0.00, 0.00, 0.00], [92.23, 0.00, 0.00, 0.00, 0.00, 0.00], [0.00, 0.00, 0.00, 0.00, 0.00, 0.00], [142.86, 0.00, 0.00, 0.00, 0.00, 0.00], [0.00, 0.00, 0.00, 0.00, 0.00, 0.00], [0.00, 0.00, 0.00, 0.00, 0.00, 0.00], [180.73, 0.00, 0.00, 0.00, 0.00, 0.00], [163.56, 0.00, 0.00, 0.00, 0.00, 0.00], [193.92, 0.00, 0.00, 0.00, 0.00, 0.00], [285.12, 0.00, 0.00, 0.00, 0.00, 0.00]], "feature": [1.00, -2.00, 0.00, 2.00, 2.00, -2.00, -2.00, 0.00, -2.00, -2.00, 1.00, 0.00, -2.00, 0.00, -2.00, 0.00, 0.00, -2.00, -2.00, -2.00, -2.00], "children_left": [1, -1, 3, 4, 5, -1, -1, 8, -1, -1, 11, 12, -1, 14, -1, 16, 17, -1, -1, -1, -1]}, {"children_right": [10, 7, 6, 5, -1, -1, -1, 9, -1, -1, 16, 15, 14, -1, -1, -1, 18, -1, -1], "threshold": [640.00, 1464.00, 684.50, 2016.00, -2.00, -2.00, -2.00, 320.00, -2.00, -2.00, 532.50, 2880.00, 320.00, -2.00, -2.00, -2.00, 1536.00, -2.00, -2.00], "value": [[0.00, 0.00, 0.00, 0.00, 0.00, 0.00], [0.00, 0.00, 0.00, 0.00, 0.00, 0.00], [0.00, 0.00, 0.00, 0.00, 0.00, 0.00], [0.00, 0.00, 0.00, 0.00, 0.00, 0.00], [180.73, 0.00, 0.00, 0.00, 0.00, 0.00], [163.56, 0.00, 0.00, 0.00, 0.00, 0.00], [149.76, 0.00, 0.00, 0.00, 154.31, 185.81], [0.00, 0.00, 0.00, 0.00, 0.00, 0.00], [156.19, 0.00, 0.00, 252.38, 164.78, 205.91], [150.32, 0.00, 0.00, 179.22, 153.94, 177.71], [0.00, 0.00, 0.00, 0.00, 0.00, 0.00], [0.00, 0.00, 0.00, 0.00, 0.00, 0.00], [0.00, 0.00, 0.00, 0.00, 0.00, 0.00], [166.69, 0.00, 0.00, 0.00, 142.80, 0.00], [177.51, 0.00, 0.00, 0.00, 164.06, 0.00], [178.80, 0.00, 0.00, 0.00, 0.00, 0.00], [0.00, 0.00, 0.00, 0.00, 0.00, 0.00], [265.73, 0.00, 0.00, 0.00, 0.00, 0.00], [285.12, 0.00, 0.00, 0.00, 0.00, 0.00]], "feature": [1.00, 2.00, 2.00, 0.00, -2.00, -2.00, -2.00, 1.00, -2.00, -2.00, 0.00, 1.00, 2.00, -2.00, -2.00, -2.00, 0.00, -2.00, -2.00], "children_left": [1, 2, 3, 4, -1, -1, -1, 8, -1, -1, 11, 12, 13, -1, -1, -1, 17, -1, -1]}, {"children_right": [16, 7, 6, 5, -1, -1, -1, 13, 10, -1, 12, -1, -1, 15, -1, -1, -1], "threshold": [24000.00, 812.50, 8600.00, 449.00, -2.00, -2.00, -2.00, 532.50, 1216.00, -2.00, 896.00, -2.00, -2.00, 1536.00, -2.00, -2.00, -2.00], "value": [[0.00, 0.00, 0.00, 0.00, 0.00, 0.00], [0.00, 0.00, 0.00, 0.00, 0.00, 0.00], [0.00, 0.00, 0.00, 0.00, 0.00, 0.00], [0.00, 0.00, 0.00, 0.00, 0.00, 0.00], [166.69, 0.00, 0.00, 0.00, 142.80, 0.00], [149.76, 0.00, 0.00, 0.00, 154.31, 185.81], [4.36, 110.66, 87.82, 42.71, 5.69, 24.71], [0.00, 0.00, 0.00, 0.00, 0.00, 0.00], [0.00, 0.00, 0.00, 0.00, 0.00, 0.00], [92.23, 0.00, 0.00, 0.00, 0.00, 0.00], [0.00, 0.00, 0.00, 0.00, 0.00, 0.00], [163.56, 0.00, 0.00, 0.00, 0.00, 0.00], [142.86, 0.00, 0.00, 0.00, 0.00, 0.00], [0.00, 0.00, 0.00, 0.00, 0.00, 0.00], [265.73, 0.00, 0.00, 0.00, 0.00, 0.00], [285.12, 0.00, 0.00, 0.00, 0.00, 0.00], [156.19, 0.00, 0.00, 252.38, 164.78, 205.91]], "feature": [2.00, 0.00, 2.00, 0.00, -2.00, -2.00, -2.00, 2.00, 0.00, -2.00, 1.00, -2.00, -2.00, 0.00, -2.00, -2.00, -2.00], "children_left": [1, 2, 3, 4, -1, -1, -1, 8, 9, -1, 11, -1, -1, 14, -1, -1, -1]}, {"children_right": [10, 3, -1, 7, 6, -1, -1, 9, -1, -1, 18, 13, -1, 15, -1, 17, -1, -1, 20, -1, -1], "threshold": [812.50, 112.00, -2.00, 1464.00, 728.00, -2.00, -2.00, 16864.00, -2.00, -2.00, 532.50, 1216.00, -2.00, 1632.00, -2.00, 2592.00, -2.00, -2.00, 1536.00, -2.00, -2.00], "value": [[0.00, 0.00, 0.00, 0.00, 0.00, 0.00], [0.00, 0.00, 0.00, 0.00, 0.00, 0.00], [4.36, 110.66, 87.82, 42.71, 5.69, 24.71], [0.00, 0.00, 0.00, 0.00, 0.00, 0.00], [0.00, 0.00, 0.00, 0.00, 0.00, 0.00], [178.80, 0.00, 0.00, 0.00, 0.00, 0.00], [149.76, 0.00, 0.00, 0.00, 154.31, 185.81], [0.00, 0.00, 0.00, 0.00, 0.00, 0.00], [150.32, 0.00, 0.00, 179.22, 153.94, 177.71], [156.19, 0.00, 0.00, 252.38, 164.78, 205.91], [0.00, 0.00, 0.00, 0.00, 0.00, 0.00], [0.00, 0.00, 0.00, 0.00, 0.00, 0.00], [92.23, 0.00, 0.00, 0.00, 0.00, 0.00], [0.00, 0.00, 0.00, 0.00, 0.00, 0.00], [142.86, 0.00, 0.00, 0.00, 0.00, 0.00], [0.00, 0.00, 0.00, 0.00, 0.00, 0.00], [180.73, 0.00, 0.00, 0.00, 0.00, 0.00], [193.92, 0.00, 0.00, 0.00, 0.00, 0.00], [0.00, 0.00, 0.00, 0.00, 0.00, 0.00], [265.73, 0.00, 0.00, 0.00, 0.00, 0.00], [285.12, 0.00, 0.00, 0.00, 0.00, 0.00]], "feature": [0.00, 1.00, -2.00, 2.00, 2.00, -2.00, -2.00, 2.00, -2.00, -2.00, 2.00, 0.00, -2.00, 0.00, -2.00, 0.00, -2.00, -2.00, 1.00, -2.00, -2.00], "children_left": [1, 2, -1, 4, 5, -1, -1, 8, -1, -1, 11, 12, -1, 14, -1, 16, -1, -1, 19, -1, -1]}, {"children_right": [12, 3, -1, 7, 6, -1, -1, 11, 10, -1, -1, -1, 16, 15, -1, -1, -1], "threshold": [9088.00, 532.50, -2.00, 100.50, 1216.00, -2.00, -2.00, 2816.00, 1536.00, -2.00, -2.00, -2.00, 160.00, 48.00, -2.00, -2.00, -2.00], "value": [[0.00, 0.00, 0.00, 0.00, 0.00, 0.00], [0.00, 0.00, 0.00, 0.00, 0.00, 0.00], [177.51, 0.00, 0.00, 0.00, 164.06, 0.00], [0.00, 0.00, 0.00, 0.00, 0.00, 0.00], [0.00, 0.00, 0.00, 0.00, 0.00, 0.00], [92.23, 0.00, 0.00, 0.00, 0.00, 0.00], [142.86, 0.00, 0.00, 0.00, 0.00, 0.00], [0.00, 0.00, 0.00, 0.00, 0.00, 0.00], [0.00, 0.00, 0.00, 0.00, 0.00, 0.00], [265.73, 0.00, 0.00, 0.00, 0.00, 0.00], [285.12, 0.00, 0.00, 0.00, 0.00, 0.00], [193.92, 0.00, 0.00, 0.00, 0.00, 0.00], [0.00, 0.00, 0.00, 0.00, 0.00, 0.00], [0.00, 0.00, 0.00, 0.00, 0.00, 0.00], [4.36, 110.66, 87.82, 42.71, 5.69, 24.71], [16.80, 184.81, 237.18, 139.40, 22.56, 99.14], [156.19, 0.00, 0.00, 252.38, 164.78, 205.91]], "feature": [2.00, 0.00, -2.00, 2.00, 0.00, -2.00, -2.00, 0.00, 0.00, -2.00, -2.00, -2.00, 1.00, 1.00, -2.00, -2.00, -2.00], "children_left": [1, 2, -1, 4, 5, -1, -1, 8, 9, -1, -1, -1, 13, 14, -1, -1, -1]}, {"children_right": [12, 3, -1, 7, 6, -1, -1, 11, 10, -1, -1, -1, 14, -1, -1], "threshold": [9088.00, 224.00, -2.00, 948.50, 2016.00, -2.00, -2.00, 1172.50, 2016.00, -2.00, -2.00, -2.00, 48.00, -2.00, -2.00], "value": [[0.00, 0.00, 0.00, 0.00, 0.00, 0.00], [0.00, 0.00, 0.00, 0.00, 0.00, 0.00], [149.76, 0.00, 0.00, 0.00, 154.31, 185.81], [0.00, 0.00, 0.00, 0.00, 0.00, 0.00], [0.00, 0.00, 0.00, 0.00, 0.00, 0.00], [177.51, 0.00, 0.00, 0.00, 164.06, 0.00], [166.69, 0.00, 0.00, 0.00, 142.80, 0.00], [0.00, 0.00, 0.00, 0.00, 0.00, 0.00], [0.00, 0.00, 0.00, 0.00, 0.00, 0.00], [180.73, 0.00, 0.00, 0.00, 0.00, 0.00], [163.56, 0.00, 0.00, 0.00, 0.00, 0.00], [285.12, 0.00, 0.00, 0.00, 0.00, 0.00], [0.00, 0.00, 0.00, 0.00, 0.00, 0.00], [4.36, 110.66, 87.82, 42.71, 5.69, 24.71], [16.80, 184.81, 237.18, 139.40, 22.56, 99.14]], "feature": [2.00, 1.00, -2.00, 0.00, 1.00, -2.00, -2.00, 2.00, 0.00, -2.00, -2.00, -2.00, 1.00, -2.00, -2.00], "children_left": [1, 2, -1, 4, 5, -1, -1, 8, 9, -1, -1, -1, 13, -1, -1]}, {"children_right": [6, 3, -1, 5, -1, -1, 16, 13, 12, 11, -1, -1, -1, 15, -1, -1, 22, 19, -1, 21, -1, -1, -1], "threshold": [160.00, 9152.00, -2.00, 40000.00, -2.00, -2.00, 812.50, 1464.00, 449.00, 2016.00, -2.00, -2.00, -2.00, 16864.00, -2.00, -2.00, 1172.50, 100.50, -2.00, 320.00, -2.00, -2.00, -2.00], "value": [[0.00, 0.00, 0.00, 0.00, 0.00, 0.00], [0.00, 0.00, 0.00, 0.00, 0.00, 0.00], [82.38, 144.67, 0.00, 156.71, 99.97, 178.29], [0.00, 0.00, 0.00, 0.00, 0.00, 0.00], [4.36, 110.66, 87.82, 42.71, 5.69, 24.71], [16.80, 184.81, 237.18, 139.40, 22.56, 99.14], [0.00, 0.00, 0.00, 0.00, 0.00, 0.00], [0.00, 0.00, 0.00, 0.00, 0.00, 0.00], [0.00, 0.00, 0.00, 0.00, 0.00, 0.00], [0.00, 0.00, 0.00, 0.00, 0.00, 0.00], [177.51, 0.00, 0.00, 0.00, 164.06, 0.00], [166.69, 0.00, 0.00, 0.00, 142.80, 0.00], [149.76, 0.00, 0.00, 0.00, 154.31, 185.81], [0.00, 0.00, 0.00, 0.00, 0.00, 0.00], [150.32, 0.00, 0.00, 179.22, 153.94, 177.71], [156.19, 0.00, 0.00, 252.38, 164.78, 205.91], [0.00, 0.00, 0.00, 0.00, 0.00, 0.00], [0.00, 0.00, 0.00, 0.00, 0.00, 0.00], [92.23, 0.00, 0.00, 0.00, 0.00, 0.00], [0.00, 0.00, 0.00, 0.00, 0.00, 0.00], [193.92, 0.00, 0.00, 0.00, 0.00, 0.00], [180.73, 0.00, 0.00, 0.00, 0.00, 0.00], [285.12, 0.00, 0.00, 0.00, 0.00, 0.00]], "feature": [1.00, 2.00, -2.00, 2.00, -2.00, -2.00, 0.00, 2.00, 0.00, 1.00, -2.00, -2.00, -2.00, 2.00, -2.00, -2.00, 2.00, 2.00, -2.00, 1.00, -2.00, -2.00, -2.00], "children_left": [1, 2, -1, 4, -1, -1, 7, 8, 9, 10, -1, -1, -1, 14, -1, -1, 17, 18, -1, 20, -1, -1, -1]}, {"children_right": [8, 5, 4, -1, -1, 7, -1, -1, 12, 11, -1, -1, 18, 15, -1, 17, -1, -1, 20, -1, -1], "threshold": [320.00, 212.50, 9152.00, -2.00, -2.00, 16600.00, -2.00, -2.00, 532.50, 2016.00, -2.00, -2.00, 532.50, 1216.00, -2.00, 960.00, -2.00, -2.00, 1536.00, -2.00, -2.00], "value": [[0.00, 0.00, 0.00, 0.00, 0.00, 0.00], [0.00, 0.00, 0.00, 0.00, 0.00, 0.00], [0.00, 0.00, 0.00, 0.00, 0.00, 0.00], [82.38, 144.67, 0.00, 156.71, 99.97, 178.29], [4.36, 110.66, 87.82, 42.71, 5.69, 24.71], [0.00, 0.00, 0.00, 0.00, 0.00, 0.00], [149.76, 0.00, 0.00, 0.00, 154.31, 185.81], [156.19, 0.00, 0.00, 252.38, 164.78, 205.91], [0.00, 0.00, 0.00, 0.00, 0.00, 0.00], [0.00, 0.00, 0.00, 0.00, 0.00, 0.00], [177.51, 0.00, 0.00, 0.00, 164.06, 0.00], [166.69, 0.00, 0.00, 0.00, 142.80, 0.00], [0.00, 0.00, 0.00, 0.00, 0.00, 0.00], [0.00, 0.00, 0.00, 0.00, 0.00, 0.00], [92.23, 0.00, 0.00, 0.00, 0.00, 0.00], [0.00, 0.00, 0.00, 0.00, 0.00, 0.00], [180.73, 0.00, 0.00, 0.00, 0.00, 0.00], [142.86, 0.00, 0.00, 0.00, 0.00, 0.00], [0.00, 0.00, 0.00, 0.00, 0.00, 0.00], [265.73, 0.00, 0.00, 0.00, 0.00, 0.00], [285.12, 0.00, 0.00, 0.00, 0.00, 0.00]], "feature": [1.00, 0.00, 2.00, -2.00, -2.00, 2.00, -2.00, -2.00, 0.00, 1.00, -2.00, -2.00, 2.00, 0.00, -2.00, 1.00, -2.00, -2.00, 1.00, -2.00, -2.00], "children_left": [1, 2, 3, -1, -1, 6, -1, -1, 9, 10, -1, -1, 13, 14, -1, 16, -1, -1, 19, -1, -1]}], "profiles": [[1, 32, 8, 8, 1, 2, 4, 8, 0, 0, 8, 32], [1, 32, 8, 4, 32, 1, 4, 8, 0, 0, 8, 16], [1, 8, 8, 16, 128, 4, 4, 4, 0, 0, 8, 16], [1, 8, 16, 16, 8, 4, 4, 4, 0, 0, 16, 8], [1, 32, 8, 16, 2, 2, 4, 8, 0, 0, 8, 64], [1, 16, 8, 4, 4, 2, 4, 8, 0, 0, 8, 8]]}}, "elementwise_1d": {"float32": {"predictor": [{"children_right": [2, -1, 4, -1, -1], "threshold": [306240.00, -2.00, 4171136.00, -2.00, -2.00], "value": [[0.00, 0.00, 0.00, 0.00, 0.00], [4.58, 4.58, 3.78, 2.15, 0.78], [0.00, 0.00, 0.00, 0.00, 0.00], [64.76, 70.51, 74.88, 57.04, 28.33], [83.32, 85.26, 87.25, 95.19, 103.12]], "feature": [0.00, -2.00, 0.00, -2.00, -2.00], "children_left": [1, -1, 3, -1, -1]}, {"children_right": [2, -1, 4, -1, -1], "threshold": [306240.00, -2.00, 1377024.00, -2.00, -2.00], "value": [[0.00, 0.00, 0.00, 0.00, 0.00], [4.58, 4.58, 3.78, 2.15, 0.78], [0.00, 0.00, 0.00, 0.00, 0.00], [64.76, 70.51, 74.88, 57.04, 28.33], [78.81, 82.84, 87.31, 96.13, 65.60]], "feature": [0.00, -2.00, 0.00, -2.00, -2.00], "children_left": [1, -1, 3, -1, -1]}], "profiles": [[2, 256, 32, 1], [1, 256, 512, 1], [1, 256, 2048, 1], [1, 256, 8192, 1], [1, 256, 32768, 1]]}}, "gemm_nt": {"float32": {"predictor": [{"children_right": [6, 5, 4, -1, -1, -1, 16, 11, 10, -1, -1, 15, 14, -1, -1, -1, 18, -1, -1], "threshold": [128.00, 213.50, 48.00, -2.00, -2.00, -2.00, 1688.00, 449.00, 2016.00, -2.00, -2.00, 2880.00, 224.00, -2.00, -2.00, -2.00, 1216.00, -2.00, -2.00], "children_left": [1, 2, 3, -1, -1, -1, 7, 8, 9, -1, -1, 12, 13, -1, -1, -1, 17, -1, -1], "feature": [1.00, 0.00, 0.00, -2.00, -2.00, -2.00, 2.00, 0.00, 1.00, -2.00, -2.00, 0.00, 1.00, -2.00, -2.00, -2.00, 0.00, -2.00, -2.00], "value": [[0.00, 0.00, 0.00, 0.00, 0.00, 0.00, 0.00, 0.00], [0.00, 0.00, 0.00, 0.00, 0.00, 0.00, 0.00, 0.00], [0.00, 0.00, 0.00, 0.00, 0.00, 0.00, 0.00, 0.00], [4.78, 4.71, 188.27, 99.88, 8.88, 35.70, 5.09, 4.85], [18.67, 19.11, 373.57, 495.50, 36.48, 153.26, 20.49, 18.95], [98.91, 88.82, 0.00, 0.00, 156.87, 364.13, 108.11, 100.94], [0.00, 0.00, 0.00, 0.00, 0.00, 0.00, 0.00, 0.00], [0.00, 0.00, 0.00, 0.00, 0.00, 0.00, 0.00, 0.00], [0.00, 0.00, 0.00, 0.00, 0.00, 0.00, 0.00, 0.00], [241.45, 244.59, 0.00, 0.00, 253.46, 0.00, 282.41, 269.93], [263.03, 262.37, 0.00, 0.00, 239.32, 0.00, 272.73, 281.64], [0.00, 0.00, 0.00, 0.00, 0.00, 0.00, 0.00, 0.00], [0.00, 0.00, 0.00, 0.00, 0.00, 0.00, 0.00, 0.00], [279.00, 300.35, 0.00, 0.00, 343.15, 0.00, 326.45, 322.09], [263.36, 279.56, 0.00, 0.00, 262.83, 0.00, 278.82, 286.85], [328.26, 348.12, 0.00, 0.00, 315.14, 0.00, 334.83, 355.22], [0.00, 0.00, 0.00, 0.00, 0.00, 0.00, 0.00, 0.00], [291.43, 288.80, 0.00, 0.00, 382.26, 545.43, 281.70, 269.28], [608.15, 589.52, 0.00, 0.00, 523.28, 0.00, 601.97, 606.54]]}, {"children_right": [16, 13, 12, 7, 6, -1, -1, 11, 10, -1, -1, -1, -1, 15, -1, -1, 18, -1, -1], "threshold": [9728.00, 1600.00, 640.00, 100.50, 1536.00, -2.00, -2.00, 1812.50, 320.00, -2.00, -2.00, -2.00, -2.00, 192.00, -2.00, -2.00, 48.00, -2.00, -2.00], "children_left": [1, 2, 3, 4, 5, -1, -1, 8, 9, -1, -1, -1, -1, 14, -1, -1, 17, -1, -1], "feature": [2.00, 2.00, 2.00, 2.00, 1.00, -2.00, -2.00, 0.00, 2.00, -2.00, -2.00, -2.00, -2.00, 1.00, -2.00, -2.00, 0.00, -2.00, -2.00], "value": [[0.00, 0.00, 0.00, 0.00, 0.00, 0.00, 0.00, 0.00], [0.00, 0.00, 0.00, 0.00, 0.00, 0.00, 0.00, 0.00], [0.00, 0.00, 0.00, 0.00, 0.00, 0.00, 0.00, 0.00], [0.00, 0.00, 0.00, 0.00, 0.00, 0.00, 0.00, 0.00], [0.00, 0.00, 0.00, 0.00, 0.00, 0.00, 0.00, 0.00], [94.98, 115.99, 0.00, 0.00, 106.16, 0.00, 100.56, 114.63], [200.16, 283.21, 0.00, 0.00, 229.93, 0.00, 237.89, 290.52], [0.00, 0.00, 0.00, 0.00, 0.00, 0.00, 0.00, 0.00], [0.00, 0.00, 0.00, 0.00, 0.00, 0.00, 0.00, 0.00], [263.03, 262.37, 0.00, 0.00, 239.32, 0.00, 272.73, 281.64], [241.45, 244.59, 0.00, 0.00, 253.46, 0.00, 282.41, 269.93], [328.26, 348.12, 0.00, 0.00, 315.14, 0.00, 334.83, 355.22], [521.26, 499.02, 0.00, 0.00, 459.04, 0.00, 523.93, 485.37], [0.00, 0.00, 0.00, 0.00, 0.00, 0.00, 0.00, 0.00], [87.07, 76.79, 0.00, 0.00, 149.69, 312.47, 99.19, 92.99], [178.75, 165.62, 0.00, 0.00, 227.26, 421.89, 181.67, 178.95], [0.00, 0.00, 0.00, 0.00, 0.00, 0.00, 0.00, 0.00], [4.78, 4.71, 188.27, 99.88, 8.88, 35.70, 5.09, 4.85], [18.67, 19.11, 373.57, 495.50, 36.48, 153.26, 20.49, 18.95]]}], "profiles": [[2, 16, 32, 16, 1, 4, 2, 8, 0, 0, 16, 16], [2, 16, 4, 4, 1, 4, 2, 8, 0, 0, 16, 4], [1, 8, 16, 16, 64, 4, 4, 2, 0, 0, 32, 4], [2, 16, 16, 8, 128, 4, 2, 8, 0, 0, 32, 4], [2, 16, 16, 8, 1, 2, 1, 8, 0, 0, 16, 8], [1, 16, 16, 8, 8, 4, 1, 8, 0, 0, 64, 2], [1, 8, 16, 16, 1, 8, 8, 4, 0, 0, 64, 2], [2, 16, 4, 8, 1, 4, 1, 8, 0, 0, 32, 4]]}}, "reduce_1d": {"float32": {"predictor": [{"children_right": [4, 3, -1, -1, -1], "threshold": [4171136.00, 383232.00, -2.00, -2.00, -2.00], "children_left": [1, 2, -1, -1, -1], "feature": [0.00, 0.00, -2.00, -2.00, -2.00], "value": [[0.00, 0.00, 0.00], [0.00, 0.00, 0.00], [12.70, 13.50, 14.04], [27.41, 32.40, 36.85], [46.19, 63.46, 81.83]]}, {"children_right": [4, 3, -1, -1, -1], "threshold": [383232.00, 89920.00, -2.00, -2.00, -2.00], "children_left": [1, 2, -1, -1, -1], "feature": [0.00, 0.00, -2.00, -2.00, -2.00], "value": [[0.00, 0.00, 0.00], [0.00, 0.00, 0.00], [1.31, 1.28, 1.28], [12.70, 13.50, 14.04], [27.41, 32.40, 36.85]]}, {"children_right": [2, -1, 4, -1, -1], "threshold": [306240.00, -2.00, 4171136.00, -2.00, -2.00], "children_left": [1, -1, 3, -1, -1], "feature": [0.00, -2.00, 0.00, -2.00, -2.00], "value": [[0.00, 0.00, 0.00], [1.31, 1.28, 1.28], [0.00, 0.00, 0.00], [27.41, 32.40, 36.85], [46.19, 63.46, 81.83]]}], "profiles": [[1, 64, 64, 1], [2, 64, 64, 1], [1, 256, 64, 1]]}}, "gemm_tt": {"float32": {"predictor": [{"children_right": [14, 11, 4, -1, 6, -1, 10, 9, -1, -1, -1, 13, -1, -1, 16, -1, 18, -1, -1], "threshold": [1312.00, 546.00, 160.00, -2.00, 116.50, -2.00, 2592.00, 212.50, -2.00, -2.00, -2.00, 1248.00, -2.00, -2.00, 116.50, -2.00, 256.00, -2.00, -2.00], "value": [[0.00, 0.00, 0.00, 0.00, 0.00, 0.00, 0.00, 0.00, 0.00], [0.00, 0.00, 0.00, 0.00, 0.00, 0.00, 0.00, 0.00, 0.00], [0.00, 0.00, 0.00, 0.00, 0.00, 0.00, 0.00, 0.00, 0.00], [180.64, 180.42, 162.27, 0.00, 0.00, 129.25, 0.00, 135.27, 136.72], [0.00, 0.00, 0.00, 0.00, 0.00, 0.00, 0.00, 0.00, 0.00], [159.72, 158.11, 164.40, 0.00, 0.00, 0.00, 0.00, 111.38, 104.03], [0.00, 0.00, 0.00, 0.00, 0.00, 0.00, 0.00, 0.00, 0.00], [0.00, 0.00, 0.00, 0.00, 0.00, 0.00, 0.00, 0.00, 0.00], [234.35, 229.10, 209.18, 0.00, 0.00, 0.00, 0.00, 156.94, 156.97], [238.93, 238.86, 231.99, 0.00, 0.00, 0.00, 0.00, 174.37, 175.50], [253.85, 250.23, 227.43, 0.00, 0.00, 0.00, 0.00, 165.02, 168.86], [0.00, 0.00, 0.00, 0.00, 0.00, 0.00, 0.00, 0.00, 0.00], [333.49, 337.05, 294.56, 0.00, 0.00, 0.00, 0.00, 229.99, 216.97], [277.84, 272.78, 226.09, 0.00, 0.00, 0.00, 0.00, 184.36, 193.06], [0.00, 0.00, 0.00, 0.00, 0.00, 0.00, 0.00, 0.00, 0.00], [26.87, 26.52, 25.87, 248.93, 273.65, 108.39, 149.58, 26.16, 38.15], [0.00, 0.00, 0.00, 0.00, 0.00, 0.00, 0.00, 0.00, 0.00], [118.64, 117.28, 118.67, 0.00, 0.00, 229.72, 197.40, 125.85, 158.25], [253.15, 254.86, 227.69, 0.00, 0.00, 250.59, 238.33, 159.52, 216.05]], "feature": [2.00, 2.00, 1.00, -2.00, 2.00, -2.00, 0.00, 2.00, -2.00, -2.00, -2.00, 0.00, -2.00, -2.00, 0.00, -2.00, 1.00, -2.00, -2.00], "children_left": [1, 2, 3, -1, 5, -1, 7, 8, -1, -1, -1, 12, -1, -1, 15, -1, 17, -1, -1]}], "profiles": [[1, 4, 16, 16, 1, 4, 8, 4, 0, 0, 16, 4], [1, 4, 16, 16, 1, 4, 4, 4, 0, 0, 16, 4], [1, 4, 8, 16, 1, 8, 1, 2, 0, 0, 8, 8], [1, 8, 8, 8, 64, 4, 4, 4, 0, 0, 8, 8], [1, 4, 8, 16, 128, 4, 1, 4, 0, 0, 8, 8], [1, 2, 16, 32, 4, 8, 1, 2, 0, 0, 16, 4], [1, 4, 8, 16, 8, 4, 4, 4, 0, 0, 8, 8], [2, 2, 16, 16, 1, 8, 8, 2, 0, 0, 8, 4], [1, 2, 32, 32, 1, 4, 8, 2, 0, 0, 32, 2]]}}}